digraph Tree {
node [shape=box] ;
0 [label="shortness_of_breath <= 1.253\ngini = 0.245\nsamples = 119\nvalue = [102, 17]\nclass = negative"] ;
1 [label="cough <= 0.743\ngini = 0.073\nsamples = 106\nvalue = [102, 4]\nclass = negative"] ;
0 -> 1 [labeldistance=2.5, labelangle=45, headlabel="True"] ;
2 [label="gini = 0.0\nsamples = 91\nvalue = [91, 0]\nclass = negative"] ;
1 -> 2 ;
3 [label="fever <= 0.712\ngini = 0.391\nsamples = 15\nvalue = [11, 4]\nclass = negative"] ;
1 -> 3 ;
4 [label="gini = 0.346\nsamples = 9\nvalue = [7, 2]\nclass = negative"] ;
3 -> 4 ;
5 [label="gini = 0.444\nsamples = 6\nvalue = [4, 2]\nclass = negative"] ;
3 -> 5 ;
6 [label="gini = 0.0\nsamples = 13\nvalue = [0, 13]\nclass = positive"] ;
0 -> 6 [labeldistance=2.5, labelangle=-45, headlabel="False"] ;
}
